Language model created by QuickLM on Mon Jan 20 15:37:13 EST 2014
Copyright (c) 1996-2010 Carnegie Mellon University and Alexander I. Rudnicky

The model is in standard ARPA format, designed by Doug Paul while he was at MITRE.

The code that was used to produce this language model is available in Open Source.
Please visit http://www.speech.cs.cmu.edu/tools/ for more information

The (fixed) discount mass is 0.5. The backoffs are computed using the ratio method.
This model based on a corpus of 44 sentences and 46 words

\data\
ngram 1=46
ngram 2=88
ngram 3=44

\1-grams:
-0.7782 </s> -0.3010
-0.7782 <s> -0.2218
-2.4216 ALPHA -0.2218
-2.4216 BACKSPACE -0.2218
-2.4216 BRAVO -0.2218
-2.4216 CAPSLOCK -0.2218
-2.4216 CHARLIE -0.2218
-2.4216 DASH -0.2218
-2.4216 DELTA -0.2218
-2.4216 DOT -0.2218
-2.4216 ECHO -0.2218
-2.4216 EIGHT -0.2218
-2.4216 ENTER -0.2218
-2.4216 FIVE -0.2218
-2.4216 FOUR -0.2218
-2.4216 FOXTROT -0.2218
-2.4216 GOLF -0.2218
-2.4216 HOTEL -0.2218
-2.4216 INDIA -0.2218
-2.4216 JULIET -0.2218
-2.4216 KILO -0.2218
-2.4216 LIMA -0.2218
-2.4216 MIKE -0.2218
-2.4216 NINE -0.2218
-2.4216 NOVEMBER -0.2218
-2.4216 ONE -0.2218
-2.4216 OSCAR -0.2218
-2.4216 PAPA -0.2218
-2.4216 QUEBEC -0.2218
-2.4216 ROMEO -0.2218
-2.4216 SEVEN -0.2218
-2.4216 SIERRA -0.2218
-2.4216 SIX -0.2218
-2.4216 SLASH -0.2218
-2.4216 SPACE -0.2218
-2.4216 TAB -0.2218
-2.4216 TANGO -0.2218
-2.4216 THREE -0.2218
-2.4216 TWO -0.2218
-2.4216 UNIFORM -0.2218
-2.4216 VICTOR -0.2218
-2.4216 WHISKEY -0.2218
-2.4216 X-RAY -0.2218
-2.4216 YANKEE -0.2218
-2.4216 ZERO -0.2218
-2.4216 ZULU -0.2218

\2-grams:
-1.9445 <s> ALPHA 0.0000
-1.9445 <s> BACKSPACE 0.0000
-1.9445 <s> BRAVO 0.0000
-1.9445 <s> CAPSLOCK 0.0000
-1.9445 <s> CHARLIE 0.0000
-1.9445 <s> DASH 0.0000
-1.9445 <s> DELTA 0.0000
-1.9445 <s> DOT 0.0000
-1.9445 <s> ECHO 0.0000
-1.9445 <s> EIGHT 0.0000
-1.9445 <s> ENTER 0.0000
-1.9445 <s> FIVE 0.0000
-1.9445 <s> FOUR 0.0000
-1.9445 <s> FOXTROT 0.0000
-1.9445 <s> GOLF 0.0000
-1.9445 <s> HOTEL 0.0000
-1.9445 <s> INDIA 0.0000
-1.9445 <s> JULIET 0.0000
-1.9445 <s> KILO 0.0000
-1.9445 <s> LIMA 0.0000
-1.9445 <s> MIKE 0.0000
-1.9445 <s> NINE 0.0000
-1.9445 <s> NOVEMBER 0.0000
-1.9445 <s> ONE 0.0000
-1.9445 <s> OSCAR 0.0000
-1.9445 <s> PAPA 0.0000
-1.9445 <s> QUEBEC 0.0000
-1.9445 <s> ROMEO 0.0000
-1.9445 <s> SEVEN 0.0000
-1.9445 <s> SIERRA 0.0000
-1.9445 <s> SIX 0.0000
-1.9445 <s> SLASH 0.0000
-1.9445 <s> SPACE 0.0000
-1.9445 <s> TAB 0.0000
-1.9445 <s> TANGO 0.0000
-1.9445 <s> THREE 0.0000
-1.9445 <s> TWO 0.0000
-1.9445 <s> UNIFORM 0.0000
-1.9445 <s> VICTOR 0.0000
-1.9445 <s> WHISKEY 0.0000
-1.9445 <s> X-RAY 0.0000
-1.9445 <s> YANKEE 0.0000
-1.9445 <s> ZERO 0.0000
-1.9445 <s> ZULU 0.0000
-0.3010 ALPHA </s> -0.3010
-0.3010 BACKSPACE </s> -0.3010
-0.3010 BRAVO </s> -0.3010
-0.3010 CAPSLOCK </s> -0.3010
-0.3010 CHARLIE </s> -0.3010
-0.3010 DASH </s> -0.3010
-0.3010 DELTA </s> -0.3010
-0.3010 DOT </s> -0.3010
-0.3010 ECHO </s> -0.3010
-0.3010 EIGHT </s> -0.3010
-0.3010 ENTER </s> -0.3010
-0.3010 FIVE </s> -0.3010
-0.3010 FOUR </s> -0.3010
-0.3010 FOXTROT </s> -0.3010
-0.3010 GOLF </s> -0.3010
-0.3010 HOTEL </s> -0.3010
-0.3010 INDIA </s> -0.3010
-0.3010 JULIET </s> -0.3010
-0.3010 KILO </s> -0.3010
-0.3010 LIMA </s> -0.3010
-0.3010 MIKE </s> -0.3010
-0.3010 NINE </s> -0.3010
-0.3010 NOVEMBER </s> -0.3010
-0.3010 ONE </s> -0.3010
-0.3010 OSCAR </s> -0.3010
-0.3010 PAPA </s> -0.3010
-0.3010 QUEBEC </s> -0.3010
-0.3010 ROMEO </s> -0.3010
-0.3010 SEVEN </s> -0.3010
-0.3010 SIERRA </s> -0.3010
-0.3010 SIX </s> -0.3010
-0.3010 SLASH </s> -0.3010
-0.3010 SPACE </s> -0.3010
-0.3010 TAB </s> -0.3010
-0.3010 TANGO </s> -0.3010
-0.3010 THREE </s> -0.3010
-0.3010 TWO </s> -0.3010
-0.3010 UNIFORM </s> -0.3010
-0.3010 VICTOR </s> -0.3010
-0.3010 WHISKEY </s> -0.3010
-0.3010 X-RAY </s> -0.3010
-0.3010 YANKEE </s> -0.3010
-0.3010 ZERO </s> -0.3010
-0.3010 ZULU </s> -0.3010

\3-grams:
-0.3010 <s> ALPHA </s>
-0.3010 <s> BACKSPACE </s>
-0.3010 <s> BRAVO </s>
-0.3010 <s> CAPSLOCK </s>
-0.3010 <s> CHARLIE </s>
-0.3010 <s> DASH </s>
-0.3010 <s> DELTA </s>
-0.3010 <s> DOT </s>
-0.3010 <s> ECHO </s>
-0.3010 <s> EIGHT </s>
-0.3010 <s> ENTER </s>
-0.3010 <s> FIVE </s>
-0.3010 <s> FOUR </s>
-0.3010 <s> FOXTROT </s>
-0.3010 <s> GOLF </s>
-0.3010 <s> HOTEL </s>
-0.3010 <s> INDIA </s>
-0.3010 <s> JULIET </s>
-0.3010 <s> KILO </s>
-0.3010 <s> LIMA </s>
-0.3010 <s> MIKE </s>
-0.3010 <s> NINE </s>
-0.3010 <s> NOVEMBER </s>
-0.3010 <s> ONE </s>
-0.3010 <s> OSCAR </s>
-0.3010 <s> PAPA </s>
-0.3010 <s> QUEBEC </s>
-0.3010 <s> ROMEO </s>
-0.3010 <s> SEVEN </s>
-0.3010 <s> SIERRA </s>
-0.3010 <s> SIX </s>
-0.3010 <s> SLASH </s>
-0.3010 <s> SPACE </s>
-0.3010 <s> TAB </s>
-0.3010 <s> TANGO </s>
-0.3010 <s> THREE </s>
-0.3010 <s> TWO </s>
-0.3010 <s> UNIFORM </s>
-0.3010 <s> VICTOR </s>
-0.3010 <s> WHISKEY </s>
-0.3010 <s> X-RAY </s>
-0.3010 <s> YANKEE </s>
-0.3010 <s> ZERO </s>
-0.3010 <s> ZULU </s>

\end\
